3.761313,0.5152516,-2.550816,-2.798875,-0.2713337,-0.1230397,0.5655999,-4.15343,-2.077918,-4.21161,-0.6000004,4.184304,-1.585509,-4.60368,1.521626,-4.506885,-2.785048,-4.452454,2.886387,-2.596097,-4.803169,-1.890414,4.064524,0.7419405,0.9033542,1.937697,3.523404,-1.56511,-4.88079,4.635403,-1.48158,0.1272373,-1.666809,2.275483,-4.311606,-3.40405,0.3620405,-2.497978,-1.170034,-4.88455,3.5068,3.197109,-1.518023,-3.498985,-2.284167,-1.400506,3.837115,0.5347805,0.6027446,-0.4880095,-1.31186,4.372838,0.9510411,4.24092,-2.794585,3.122555,-0.5056138,4.111187,0.3561058,0.2861204
-0.6523333,0.8503041,4.615995,-3.881083,4.532074,-4.306961,-0.3995376,-3.860023,-3.566819,-4.688673,2.675417,-1.829838,-3.071168,-2.695147,4.060975,-1.44529,-4.719163,-3.058513,-3.238998,-3.442061,4.819091,-1.210701,1.704617,-4.02731,-4.609407,4.502806,0.6257486,2.802076,-4.078898,0.05505657,0.8628149,-1.668115,2.957585,3.993174,4.041975,0.5397258,3.277523,2.782538,3.016114,2.412742,4.01798,-1.736193,1.979331,3.7036,1.758831,-4.789354,1.744665,-2.025649,4.545015,3.449366,-3.872734,2.577238,1.657858,1.937803,4.183254,1.278776,-0.8990374,4.268294,3.717566,3.06765,-1.74795,-2.128554,3.766509,1.681065,-3.535935,4.420155,-2.247765,-3.19219,1.33156,-0.2640815,-4.094835,-0.397296,4.111378,-0.8419533,-4.861444,-3.783338,3.416114,1.146583,3.225441,1.306301,0.880126,1.025876,-2.281559,0.9361962,3.038612,-0.3322186,1.961446,-1.294864,3.268543,4.492852,4.515983,-3.651921,-4.54749,-3.617925,-4.424474,3.625439,3.819591,2.648639,-1.946014,-1.0213
0.8895712,-3.270197,-0.8418913,3.104958,-1.391913,-4.712125,3.344175,4.603175,-2.957818,4.173778